<?xml version="1.0" encoding="UTF-8"?>
<PMML version="4.2" xmlns="http://www.dmg.org/PMML-4_2">
  <Header copyright="Miguel">
    <Application name="KNIME" version="5.3.2"/>
  </Header>
  <DataDictionary numberOfFields="2">
    <DataField name="Reseña" optype="categorical" dataType="string"/>
    <DataField name="Emocion" optype="categorical" dataType="string">
      <Value value="positiva"/>
      <Value value="negativa"/>
      <Value value="neutral"/>
    </DataField>
  </DataDictionary>
  <TreeModel modelName="SentimentAnalysis" functionName="classification" splitCharacteristic="binarySplit" missingValueStrategy="defaultChild">
    <MiningSchema>
      <MiningField name="Reseña" invalidValueTreatment="asIs" usageType="active"/>
      <MiningField name="Emocion" invalidValueTreatment="asIs" usageType="target"/>
    </MiningSchema>
    <Node id="0" score="neutral" recordCount="300000">
      <True/>
      <ScoreDistribution value="positiva" recordCount="100000"/>
      <ScoreDistribution value="negativa" recordCount="100000"/>
      <ScoreDistribution value="neutral" recordCount="100000"/>

      <!-- Nodo para emociones negativas -->
      <Node id="1" score="negativa" recordCount="100000">
        <CompoundPredicate booleanOperator="or">
          <SimplePredicate field="Reseña" operator="equal" value="malo"/>
          <SimplePredicate field="Reseña" operator="equal" value="molesto"/>
          <SimplePredicate field="Reseña" operator="equal" value="molesta"/>
          <SimplePredicate field="Reseña" operator="equal" value="maldita"/>
          <SimplePredicate field="Reseña" operator="equal" value="tedioso"/>
          <SimplePredicate field="Reseña" operator="equal" value="horrible"/>
          <SimplePredicate field="Reseña" operator="equal" value="fastidia"/>
          <SimplePredicate field="Reseña" operator="equal" value="fastidio"/>
          <SimplePredicate field="Reseña" operator="equal" value="nefasto"/>
          <SimplePredicate field="Reseña" operator="equal" value="terrible"/>
          <SimplePredicate field="Reseña" operator="equal" value="confiaba"/>
          <SimplePredicate field="Reseña" operator="equal" value="caro"/>
          <SimplePredicate field="Reseña" operator="equal" value="feo"/>
          <SimplePredicate field="Reseña" operator="equal" value="mediocre"/>
          <SimplePredicate field="Reseña" operator="equal" value="mal"/>
          <SimplePredicate field="Reseña" operator="equal" value="insuficiente"/>
          <SimplePredicate field="Reseña" operator="equal" value="incoherente"/>
          <SimplePredicate field="Reseña" operator="equal" value="inutil"/>
          <SimplePredicate field="Reseña" operator="equal" value="roto"/>
          <SimplePredicate field="Reseña" operator="equal" value="pequeño"/>
          <SimplePredicate field="Reseña" operator="equal" value="triste"/>
          <SimplePredicate field="Reseña" operator="equal" value="evitas"/>
          <SimplePredicate field="Reseña" operator="equal" value="evites"/>
          <SimplePredicate field="Reseña" operator="equal" value="tristeza"/>
          <SimplePredicate field="Reseña" operator="equal" value="enojo"/>
          <SimplePredicate field="Reseña" operator="equal" value="llanto"/>
          <SimplePredicate field="Reseña" operator="equal" value="cruel"/>
          <SimplePredicate field="Reseña" operator="equal" value="despistado"/>
          <SimplePredicate field="Reseña" operator="equal" value="despiadado"/>
          <SimplePredicate field="Reseña" operator="equal" value="maldito"/>
          <SimplePredicate field="Reseña" operator="equal" value="caraje"/>
          <SimplePredicate field="Reseña" operator="equal" value="carajo"/>
          <SimplePredicate field="Reseña" operator="equal" value="frio"/>
          <SimplePredicate field="Reseña" operator="equal" value="basura"/>
          <SimplePredicate field="Reseña" operator="equal" value="callate"/>
          <SimplePredicate field="Reseña" operator="equal" value="rompe"/>
          <SimplePredicate field="Reseña" operator="equal" value="cae"/>
          <SimplePredicate field="Reseña" operator="equal" value="exasperante"/>
          <SimplePredicate field="Reseña" operator="equal" value="negativo"/>
          <SimplePredicate field="Reseña" operator="equal" value="desagrada"/>
          <SimplePredicate field="Reseña" operator="equal" value="desagrado"/>
          <SimplePredicate field="Reseña" operator="equal" value="desagradante"/>
          <SimplePredicate field="Reseña" operator="equal" value="complicado"/>
          <SimplePredicate field="Reseña" operator="equal" value="aspero"/>
          <SimplePredicate field="Reseña" operator="equal" value="rompio"/>
          <SimplePredicate field="Reseña" operator="equal" value="rompe"/>
          <SimplePredicate field="Reseña" operator="equal" value="maldita"/>
          <SimplePredicate field="Reseña" operator="equal" value="tirado"/>
          <SimplePredicate field="Reseña" operator="equal" value="matar"/>
          <SimplePredicate field="Reseña" operator="equal" value="lento"/>
          <SimplePredicate field="Reseña" operator="equal" value="verga"/>
          <SimplePredicate field="Reseña" operator="equal" value="mrd"/>
          <SimplePredicate field="Reseña" operator="equal" value="puta"/>
          <SimplePredicate field="Reseña" operator="equal" value="pvta"/>
          <SimplePredicate field="Reseña" operator="equal" value="mierda"/>
          <SimplePredicate field="Reseña" operator="equal" value="traicion"/>
          <SimplePredicate field="Reseña" operator="equal" value="vrg"/>
          <SimplePredicate field="Reseña" operator="equal" value="desacomodado"/>
          <SimplePredicate field="Reseña" operator="equal" value="desacomodada"/>
          <SimplePredicate field="Reseña" operator="equal" value="desacomodando"/>
          <SimplePredicate field="Reseña" operator="equal" value="desordenado"/>
          <SimplePredicate field="Reseña" operator="equal" value="desordenada"/>
          <SimplePredicate field="Reseña" operator="equal" value="desordenando"/>
          <SimplePredicate field="Reseña" operator="equal" value="enfermo"/>
          <SimplePredicate field="Reseña" operator="equal" value="enferma"/>
          <SimplePredicate field="Reseña" operator="equal" value="enfermos"/>
          <SimplePredicate field="Reseña" operator="equal" value="enfermas"/>
          <SimplePredicate field="Reseña" operator="equal" value="enferme"/>
          <SimplePredicate field="Reseña" operator="equal" value="enfermamos"/>
          <SimplePredicate field="Reseña" operator="equal" value="cai"/>
          <SimplePredicate field="Reseña" operator="equal" value="caimos"/>
          <SimplePredicate field="Reseña" operator="equal" value="cayo"/>
          <SimplePredicate field="Reseña" operator="equal" value="callo"/>
          <SimplePredicate field="Reseña" operator="equal" value="callaron"/>
          <SimplePredicate field="Reseña" operator="equal" value="cayeron"/>
          <SimplePredicate field="Reseña" operator="equal" value="injusto"/>
          <SimplePredicate field="Reseña" operator="equal" value="injusticia"/>
          <SimplePredicate field="Reseña" operator="equal" value="devastado"/>
          <SimplePredicate field="Reseña" operator="equal" value="asusta"/>
          <SimplePredicate field="Reseña" operator="equal" value="asusto"/>
          <SimplePredicate field="Reseña" operator="equal" value="asustaron"/>
          <SimplePredicate field="Reseña" operator="equal" value="enojado"/>
          <SimplePredicate field="Reseña" operator="equal" value="traicionado"/>
          <SimplePredicate field="Reseña" operator="equal" value="incertidumbre"/>
          <SimplePredicate field="Reseña" operator="equal" value="traicionada"/>
          <SimplePredicate field="Reseña" operator="equal" value="inquieto"/>
          <SimplePredicate field="Reseña" operator="equal" value="dejo"/>
          <SimplePredicate field="Reseña" operator="equal" value="peor"/>
          <SimplePredicate field="Reseña" operator="equal" value="cansado"/>
          <SimplePredicate field="Reseña" operator="equal" value="cansada"/>
          <SimplePredicate field="Reseña" operator="equal" value="agotado"/>
          <SimplePredicate field="Reseña" operator="equal" value="agotada"/>
          <SimplePredicate field="Reseña" operator="equal" value="agotados"/>
          <SimplePredicate field="Reseña" operator="equal" value="agotadas"/>
          <SimplePredicate field="Reseña" operator="equal" value="cansados"/>
          <SimplePredicate field="Reseña" operator="equal" value="cansadas"/>
          <SimplePredicate field="Reseña" operator="equal" value="muerto"/>
          <SimplePredicate field="Reseña" operator="equal" value="muerta"/>
          <SimplePredicate field="Reseña" operator="equal" value="enfurece"/>
          <SimplePredicate field="Reseña" operator="equal" value="enfurecido"/>
          <SimplePredicate field="Reseña" operator="equal" value="enfurecida"/>
          <SimplePredicate field="Reseña" operator="equal" value="grande"/>
          <SimplePredicate field="Reseña" operator="equal" value="costoso"/>
          <SimplePredicate field="Reseña" operator="equal" value="miedo"/>
          <SimplePredicate field="Reseña" operator="equal" value="miedoso"/>
          <SimplePredicate field="Reseña" operator="equal" value="miedosa"/>
          <SimplePredicate field="Reseña" operator="equal" value="inservible"/>
          <SimplePredicate field="Reseña" operator="equal" value="vano"/>
          <SimplePredicate field="Reseña" operator="equal" value="ingrata"/>
          <SimplePredicate field="Reseña" operator="equal" value="ingrato"/>
          <SimplePredicate field="Reseña" operator="equal" value="ingratitud"/>
          <SimplePredicate field="Reseña" operator="equal" value="aburrido"/>
          <SimplePredicate field="Reseña" operator="equal" value="aburrida"/>
          <SimplePredicate field="Reseña" operator="equal" value="tarde"/>
          <SimplePredicate field="Reseña" operator="equal" value="harto"/>
          <SimplePredicate field="Reseña" operator="equal" value="harta"/>
          <SimplePredicate field="Reseña" operator="equal" value="harte"/>
          <SimplePredicate field="Reseña" operator="equal" value="hartaste"/>
          <SimplePredicate field="Reseña" operator="equal" value="olvide"/>
          <SimplePredicate field="Reseña" operator="equal" value="olvido"/>
          <SimplePredicate field="Reseña" operator="equal" value="olvidaste"/>
          <SimplePredicate field="Reseña" operator="equal" value="olvidaron"/>
          <SimplePredicate field="Reseña" operator="equal" value="incomprensible"/>
          <SimplePredicate field="Reseña" operator="equal" value="incomprendido"/>
          <SimplePredicate field="Reseña" operator="equal" value="indignado"/>
          <SimplePredicate field="Reseña" operator="equal" value="abominable"/>
          <SimplePredicate field="Reseña" operator="equal" value="anticuado"/>
          <SimplePredicate field="Reseña" operator="equal" value="catastrofico"/>
          <SimplePredicate field="Reseña" operator="equal" value="chatarra"/>
          <SimplePredicate field="Reseña" operator="equal" value="chocante"/>
          <SimplePredicate field="Reseña" operator="equal" value="costoso"/>
          <SimplePredicate field="Reseña" operator="equal" value="cutre"/>
          <SimplePredicate field="Reseña" operator="equal" value="dañado"/>
          <SimplePredicate field="Reseña" operator="equal" value="dañino"/>
          <SimplePredicate field="Reseña" operator="equal" value="decepcionante"/>
          <SimplePredicate field="Reseña" operator="equal" value="defectuoso"/>
          <SimplePredicate field="Reseña" operator="equal" value="deficiente"/>
          <SimplePredicate field="Reseña" operator="equal" value="defraudador"/>
          <SimplePredicate field="Reseña" operator="equal" value="defraudante"/>
          <SimplePredicate field="Reseña" operator="equal" value="deplorable"/>
          <SimplePredicate field="Reseña" operator="equal" value="desacertado"/>
          <SimplePredicate field="Reseña" operator="equal" value="desactualizado"/>
          <SimplePredicate field="Reseña" operator="equal" value="desafortunado"/>
          <SimplePredicate field="Reseña" operator="equal" value="desagradable"/>
          <SimplePredicate field="Reseña" operator="equal" value="desalentador"/>
          <SimplePredicate field="Reseña" operator="equal" value="desastroso"/>
          <SimplePredicate field="Reseña" operator="equal" value="desatinado"/>
          <SimplePredicate field="Reseña" operator="equal" value="descompuesto"/>
          <SimplePredicate field="Reseña" operator="equal" value="desfasado"/>
          <SimplePredicate field="Reseña" operator="equal" value="desfavorecido"/>
          <SimplePredicate field="Reseña" operator="equal" value="desgarrador"/>
          <SimplePredicate field="Reseña" operator="equal" value="desgastado"/>
          <SimplePredicate field="Reseña" operator="equal" value="desilusion"/>
          <SimplePredicate field="Reseña" operator="equal" value="desilusionante"/>
          <SimplePredicate field="Reseña" operator="equal" value="desmesurado"/>
          <SimplePredicate field="Reseña" operator="equal" value="desmoralizador"/>
          <SimplePredicate field="Reseña" operator="equal" value="desorganizado"/>
          <SimplePredicate field="Reseña" operator="equal" value="desperdicio"/>
          <SimplePredicate field="Reseña" operator="equal" value="desperfecto"/>
          <SimplePredicate field="Reseña" operator="equal" value="despreciable"/>
          <SimplePredicate field="Reseña" operator="equal" value="deteriorado"/>
          <SimplePredicate field="Reseña" operator="equal" value="engorroso"/>
          <SimplePredicate field="Reseña" operator="equal" value="espantoso"/>
          <SimplePredicate field="Reseña" operator="equal" value="estancado"/>
          <SimplePredicate field="Reseña" operator="equal" value="esteril"/>
          <SimplePredicate field="Reseña" operator="equal" value="estropeado"/>
          <SimplePredicate field="Reseña" operator="equal" value="falla"/>
          <SimplePredicate field="Reseña" operator="equal" value="fallido"/>
          <SimplePredicate field="Reseña" operator="equal" value="fallos"/>
          <SimplePredicate field="Reseña" operator="equal" value="falso"/>
          <SimplePredicate field="Reseña" operator="equal" value="fatidico"/>
          <SimplePredicate field="Reseña" operator="equal" value="fracaso"/>
          <SimplePredicate field="Reseña" operator="equal" value="fragil"/>
          <SimplePredicate field="Reseña" operator="equal" value="frustrante"/>
          <SimplePredicate field="Reseña" operator="equal" value="futil"/>
          <SimplePredicate field="Reseña" operator="equal" value="horrendo"/>
          <SimplePredicate field="Reseña" operator="equal" value="horripilante"/>
          <SimplePredicate field="Reseña" operator="equal" value="imperdonable"/>
          <SimplePredicate field="Reseña" operator="equal" value="impractico"/>
          <SimplePredicate field="Reseña" operator="equal" value="impreciso"/>
          <SimplePredicate field="Reseña" operator="equal" value="impresentable"/>
          <SimplePredicate field="Reseña" operator="equal" value="improductivo"/>
          <SimplePredicate field="Reseña" operator="equal" value="impropio"/>
          <SimplePredicate field="Reseña" operator="equal" value="inaceptable"/>
          <SimplePredicate field="Reseña" operator="equal" value="inadecuado"/>
          <SimplePredicate field="Reseña" operator="equal" value="inadmisible"/>
          <SimplePredicate field="Reseña" operator="equal" value="inalcanzable"/>
          <SimplePredicate field="Reseña" operator="equal" value="inapropiado"/>
          <SimplePredicate field="Reseña" operator="equal" value="incapaz"/>
          <SimplePredicate field="Reseña" operator="equal" value="incomodo"/>
          <SimplePredicate field="Reseña" operator="equal" value="incomoda"/>
          <SimplePredicate field="Reseña" operator="equal" value="incomodas"/>
          <SimplePredicate field="Reseña" operator="equal" value="incompetente"/>
          <SimplePredicate field="Reseña" operator="equal" value="incompleto"/>
          <SimplePredicate field="Reseña" operator="equal" value="inconforme"/>
          <SimplePredicate field="Reseña" operator="equal" value="inconsistente"/>
          <SimplePredicate field="Reseña" operator="equal" value="inconveniente"/>
          <SimplePredicate field="Reseña" operator="equal" value="indeseable"/>
          <SimplePredicate field="Reseña" operator="equal" value="indigno"/>
          <SimplePredicate field="Reseña" operator="equal" value="ineficaz"/>
          <SimplePredicate field="Reseña" operator="equal" value="ineficiente"/>
          <SimplePredicate field="Reseña" operator="equal" value="inepto"/>
          <SimplePredicate field="Reseña" operator="equal" value="inestable"/>
          <SimplePredicate field="Reseña" operator="equal" value="infame"/>
          <SimplePredicate field="Reseña" operator="equal" value="inferior"/>
          <SimplePredicate field="Reseña" operator="equal" value="infernal"/>
          <SimplePredicate field="Reseña" operator="equal" value="injustificable"/>
          <SimplePredicate field="Reseña" operator="equal" value="inmanejable"/>
          <SimplePredicate field="Reseña" operator="equal" value="insatisfactorio"/>
          <SimplePredicate field="Reseña" operator="equal" value="inseguro"/>
          <SimplePredicate field="Reseña" operator="equal" value="insipido"/>
          <SimplePredicate field="Reseña" operator="equal" value="insoportable"/>
          <SimplePredicate field="Reseña" operator="equal" value="insufrible"/>
          <SimplePredicate field="Reseña" operator="equal" value="insustancial"/>
          <SimplePredicate field="Reseña" operator="equal" value="insustituible"/>
          <SimplePredicate field="Reseña" operator="equal" value="intolerable"/>
          <SimplePredicate field="Reseña" operator="equal" value="inutilizable"/>
          <SimplePredicate field="Reseña" operator="equal" value="irrecuperable"/>
          <SimplePredicate field="Reseña" operator="equal" value="irregular"/>
          <SimplePredicate field="Reseña" operator="equal" value="irrelevante"/>
          <SimplePredicate field="Reseña" operator="equal" value="irreparable"/>
          <SimplePredicate field="Reseña" operator="equal" value="irresponsable"/>
          <SimplePredicate field="Reseña" operator="equal" value="irritante"/>
          <SimplePredicate field="Reseña" operator="equal" value="lamentable"/>
          <SimplePredicate field="Reseña" operator="equal" value="obsoleto"/>
          <SimplePredicate field="Reseña" operator="equal" value="obstruido"/>
          <SimplePredicate field="Reseña" operator="equal" value="patetico"/>
          <SimplePredicate field="Reseña" operator="equal" value="pesado"/>
          <SimplePredicate field="Reseña" operator="equal" value="pobre"/>
          <SimplePredicate field="Reseña" operator="equal" value="problemas"/>
          <SimplePredicate field="Reseña" operator="equal" value="rechazable"/>
          <SimplePredicate field="Reseña" operator="equal" value="repelente"/>
          <SimplePredicate field="Reseña" operator="equal" value="reprobable"/>
          <SimplePredicate field="Reseña" operator="equal" value="repulsivo"/>
          <SimplePredicate field="Reseña" operator="equal" value="ridiculo"/>
          <SimplePredicate field="Reseña" operator="equal" value="ruinoso"/>
          <SimplePredicate field="Reseña" operator="equal" value="tormentoso"/>
          <SimplePredicate field="Reseña" operator="equal" value="torpe"/>
          <SimplePredicate field="Reseña" operator="equal" value="toxico"/>
          <SimplePredicate field="Reseña" operator="equal" value="vergonzoso"/>
          <SimplePredicate field="Reseña" operator="equal" value="destrozado"/>
          <SimplePredicate field="Reseña" operator="equal" value="displacer"/>
          <SimplePredicate field="Reseña" operator="equal" value="rutinario"/>
          <SimplePredicate field="Reseña" operator="equal" value="inutilidad"/>
          <SimplePredicate field="Reseña" operator="equal" value="arruinado"/>
          <SimplePredicate field="Reseña" operator="equal" value="azotado"/>
          <SimplePredicate field="Reseña" operator="equal" value="tension"/>
          <SimplePredicate field="Reseña" operator="equal" value="descontrolado"/>
          <SimplePredicate field="Reseña" operator="equal" value="desgracia"/>
          <SimplePredicate field="Reseña" operator="equal" value="calamidad"/>
          <SimplePredicate field="Reseña" operator="equal" value="inconfundible"/>
          <SimplePredicate field="Reseña" operator="equal" value="pena"/>
          <SimplePredicate field="Reseña" operator="equal" value="mortificante"/>
          <SimplePredicate field="Reseña" operator="equal" value="castigo"/>
          <SimplePredicate field="Reseña" operator="equal" value="fracasado"/>
          <SimplePredicate field="Reseña" operator="equal" value="indignacion"/>
          <SimplePredicate field="Reseña" operator="equal" value="repugnante"/>
          <SimplePredicate field="Reseña" operator="equal" value="infuriado"/>
          <SimplePredicate field="Reseña" operator="equal" value="irracional"/>
          <SimplePredicate field="Reseña" operator="equal" value="desatendido"/>
          <SimplePredicate field="Reseña" operator="equal" value="predecible"/>
          <SimplePredicate field="Reseña" operator="equal" value="desafiante"/>
          <SimplePredicate field="Reseña" operator="equal" value="desmotivado"/>
          <SimplePredicate field="Reseña" operator="equal" value="venenoso"/>
          <SimplePredicate field="Reseña" operator="equal" value="olvidable"/>
          <SimplePredicate field="Reseña" operator="equal" value="estres"/>
          <SimplePredicate field="Reseña" operator="equal" value="apatia"/>
          <SimplePredicate field="Reseña" operator="equal" value="desgastante"/>
          <SimplePredicate field="Reseña" operator="equal" value="nauseabundo"/>
          <SimplePredicate field="Reseña" operator="equal" value="cansancio"/>
          <SimplePredicate field="Reseña" operator="equal" value="desamparado"/>
          <SimplePredicate field="Reseña" operator="equal" value="estorbo"/>
          <SimplePredicate field="Reseña" operator="equal" value="desorden"/>
          <SimplePredicate field="Reseña" operator="equal" value="obstinado"/>
          <SimplePredicate field="Reseña" operator="equal" value="penoso"/>
          <SimplePredicate field="Reseña" operator="equal" value="desquiciado"/>
          <SimplePredicate field="Reseña" operator="equal" value="pesadilla"/>
          <SimplePredicate field="Reseña" operator="equal" value="erroneo"/>
          <SimplePredicate field="Reseña" operator="equal" value="malicioso"/>
          <SimplePredicate field="Reseña" operator="equal" value="angustioso"/>
          <SimplePredicate field="Reseña" operator="equal" value="iracundo"/>
          <SimplePredicate field="Reseña" operator="equal" value="descarado"/>
          <SimplePredicate field="Reseña" operator="equal" value="futile"/>
          <SimplePredicate field="Reseña" operator="equal" value="inconfundible"/>
          <SimplePredicate field="Reseña" operator="equal" value="sombrio"/>
          <SimplePredicate field="Reseña" operator="equal" value="incapacidad"/>
          <SimplePredicate field="Reseña" operator="equal" value="soso"/>
          <SimplePredicate field="Reseña" operator="equal" value="baldio"/>
          <SimplePredicate field="Reseña" operator="equal" value="frustrado"/>
          <SimplePredicate field="Reseña" operator="equal" value="provocador"/>
          <SimplePredicate field="Reseña" operator="equal" value="desabrido"/>
          <SimplePredicate field="Reseña" operator="equal" value="fatigado"/>
          <SimplePredicate field="Reseña" operator="equal" value="traicionero"/>
          <SimplePredicate field="Reseña" operator="equal" value="ridiculizado"/>
          <SimplePredicate field="Reseña" operator="equal" value="caos"/>
          <SimplePredicate field="Reseña" operator="equal" value="embrollo"/>
          <SimplePredicate field="Reseña" operator="equal" value="limitado"/>
          <SimplePredicate field="Reseña" operator="equal" value="burla"/>
          <SimplePredicate field="Reseña" operator="equal" value="tormento"/>
          <SimplePredicate field="Reseña" operator="equal" value="carente"/>
          <SimplePredicate field="Reseña" operator="equal" value="disuadido"/>
          <SimplePredicate field="Reseña" operator="equal" value="ofensa"/>
          <SimplePredicate field="Reseña" operator="equal" value="aplastante"/>
          <SimplePredicate field="Reseña" operator="equal" value="difuso"/>
          <SimplePredicate field="Reseña" operator="equal" value="inapto"/>
          <SimplePredicate field="Reseña" operator="equal" value="desesperado"/>
          <SimplePredicate field="Reseña" operator="equal" value="aplastante"/>
          <SimplePredicate field="Reseña" operator="equal" value="penuria"/>
          <SimplePredicate field="Reseña" operator="equal" value="tibio"/>
          <SimplePredicate field="Reseña" operator="equal" value="perjudicial"/>
          <SimplePredicate field="Reseña" operator="equal" value="vergonzante"/>
          <SimplePredicate field="Reseña" operator="equal" value="ansioso"/>
          <SimplePredicate field="Reseña" operator="equal" value="vertiginoso"/>
          <SimplePredicate field="Reseña" operator="equal" value="temerario"/>
          <SimplePredicate field="Reseña" operator="equal" value="arrepentimiento"/>
          <SimplePredicate field="Reseña" operator="equal" value="absurdo"/>
          <SimplePredicate field="Reseña" operator="equal" value="desgano"/>
          <SimplePredicate field="Reseña" operator="equal" value="impulsivo"/>
          <SimplePredicate field="Reseña" operator="equal" value="extremo"/>
          <SimplePredicate field="Reseña" operator="equal" value="problematico"/>
          <SimplePredicate field="Reseña" operator="equal" value="miserable"/>
          <SimplePredicate field="Reseña" operator="equal" value="disparatado"/>
          <SimplePredicate field="Reseña" operator="equal" value="ignorado"/>
          <SimplePredicate field="Reseña" operator="equal" value="incorrecto"/>
          <SimplePredicate field="Reseña" operator="equal" value="vulnerable"/>
          <SimplePredicate field="Reseña" operator="equal" value="pesaroso"/>
          <SimplePredicate field="Reseña" operator="equal" value="sucio"/>
          <SimplePredicate field="Reseña" operator="equal" value="opresivo"/>
          <SimplePredicate field="Reseña" operator="equal" value="averiado"/>
          <SimplePredicate field="Reseña" operator="equal" value="descontento"/>
          <SimplePredicate field="Reseña" operator="equal" value="desanimado"/>
          <SimplePredicate field="Reseña" operator="equal" value="precario"/>
          <SimplePredicate field="Reseña" operator="equal" value="desinteres"/>
          <SimplePredicate field="Reseña" operator="equal" value="intolerante"/>
          <SimplePredicate field="Reseña" operator="equal" value="vacio"/>
          <SimplePredicate field="Reseña" operator="equal" value="vertiginoso"/>
          <SimplePredicate field="Reseña" operator="equal" value="deterioro"/>
          <SimplePredicate field="Reseña" operator="equal" value="contaminado"/>
          <SimplePredicate field="Reseña" operator="equal" value="inadaptado"/>
          <SimplePredicate field="Reseña" operator="equal" value="aterrador"/>
          <SimplePredicate field="Reseña" operator="equal" value="irritacion"/>
          <SimplePredicate field="Reseña" operator="equal" value="rechazo"/>
          <SimplePredicate field="Reseña" operator="equal" value="presion"/>
          <SimplePredicate field="Reseña" operator="equal" value="tenso"/>
          <SimplePredicate field="Reseña" operator="equal" value="lastimoso"/>
          <SimplePredicate field="Reseña" operator="equal" value="oscuro"/>
          <SimplePredicate field="Reseña" operator="equal" value="irritacion"/>
          <SimplePredicate field="Reseña" operator="equal" value="truncado"/>
          <SimplePredicate field="Reseña" operator="equal" value="imprudente"/>
          <SimplePredicate field="Reseña" operator="equal" value="calamitoso"/>
          <SimplePredicate field="Reseña" operator="equal" value="inseguridad"/>
          <SimplePredicate field="Reseña" operator="equal" value="desprecio"/>
          <SimplePredicate field="Reseña" operator="equal" value="ruin"/>
          <SimplePredicate field="Reseña" operator="equal" value="infeliz"/>
          <SimplePredicate field="Reseña" operator="equal" value="espeluznante"/>
          <SimplePredicate field="Reseña" operator="equal" value="danino"/>
          <SimplePredicate field="Reseña" operator="equal" value="inefectivo"/>
          <SimplePredicate field="Reseña" operator="equal" value="desquite"/>
          <SimplePredicate field="Reseña" operator="equal" value="tedio"/>
          <SimplePredicate field="Reseña" operator="equal" value="debil"/>
          <SimplePredicate field="Reseña" operator="equal" value="insatisfaccion"/>
          <SimplePredicate field="Reseña" operator="equal" value="violento"/>
          <SimplePredicate field="Reseña" operator="equal" value="escandaloso"/>
          <SimplePredicate field="Reseña" operator="equal" value="doloroso"/>
          <SimplePredicate field="Reseña" operator="equal" value="conflictivo"/>
          <SimplePredicate field="Reseña" operator="equal" value="incalculable"/>
          <SimplePredicate field="Reseña" operator="equal" value="antipatico"/>
          <SimplePredicate field="Reseña" operator="equal" value="resignado"/>
          <SimplePredicate field="Reseña" operator="equal" value="desalmado"/>
          <SimplePredicate field="Reseña" operator="equal" value="turbado"/>
          <SimplePredicate field="Reseña" operator="equal" value="temible"/>
          <SimplePredicate field="Reseña" operator="equal" value="atascado"/>
          <SimplePredicate field="Reseña" operator="equal" value="grosero"/>
          <SimplePredicate field="Reseña" operator="equal" value="vulgar"/>
          <SimplePredicate field="Reseña" operator="equal" value="angustia"/>
          <SimplePredicate field="Reseña" operator="equal" value="fatiga"/>
          <SimplePredicate field="Reseña" operator="equal" value="confuso"/>
          <SimplePredicate field="Reseña" operator="equal" value="humillacion"/>
          <SimplePredicate field="Reseña" operator="equal" value="imposible"/>
          <SimplePredicate field="Reseña" operator="equal" value="arruinado"/>
          <SimplePredicate field="Reseña" operator="equal" value="limitado"/>
          <SimplePredicate field="Reseña" operator="equal" value="enfermizo"/>
          <SimplePredicate field="Reseña" operator="equal" value="irritado"/>
          <SimplePredicate field="Reseña" operator="equal" value="opaco"/>
          <SimplePredicate field="Reseña" operator="equal" value="inaguantable"/>
          <SimplePredicate field="Reseña" operator="equal" value="dudoso"/>
          <SimplePredicate field="Reseña" operator="equal" value="desolado"/>
          <SimplePredicate field="Reseña" operator="equal" value="dudoso"/>
          <SimplePredicate field="Reseña" operator="equal" value="mortifero"/>
          <SimplePredicate field="Reseña" operator="equal" value="perturbador"/>
          <SimplePredicate field="Reseña" operator="equal" value="censurable"/>
          <SimplePredicate field="Reseña" operator="equal" value="decepcion"/>
          <SimplePredicate field="Reseña" operator="equal" value="tembloroso"/>
          <SimplePredicate field="Reseña" operator="equal" value="incontrolable"/>
          <SimplePredicate field="Reseña" operator="equal" value="tragico"/>
          <SimplePredicate field="Reseña" operator="equal" value="deshecho"/>
          <SimplePredicate field="Reseña" operator="equal" value="inexacto"/>
          <SimplePredicate field="Reseña" operator="equal" value="siniestro"/>
          <SimplePredicate field="Reseña" operator="equal" value="desatendido"/>
          <SimplePredicate field="Reseña" operator="equal" value="incomodidad"/>
          <SimplePredicate field="Reseña" operator="equal" value="arruinado"/>
          <SimplePredicate field="Reseña" operator="equal" value="desidia"/>
          <SimplePredicate field="Reseña" operator="equal" value="tonto"/>
          <SimplePredicate field="Reseña" operator="equal" value="repetitivo"/>
          <SimplePredicate field="Reseña" operator="equal" value="agitado"/>
          <SimplePredicate field="Reseña" operator="equal" value="acongojado"/>
          <SimplePredicate field="Reseña" operator="equal" value="adverso"/>
          <SimplePredicate field="Reseña" operator="equal" value="agonia"/>
          <SimplePredicate field="Reseña" operator="equal" value="amargura"/>
          <SimplePredicate field="Reseña" operator="equal" value="ansiedad"/>
          <SimplePredicate field="Reseña" operator="equal" value="arrogante"/>
          <SimplePredicate field="Reseña" operator="equal" value="arruinar"/>
          <SimplePredicate field="Reseña" operator="equal" value="asustado"/>
          <SimplePredicate field="Reseña" operator="equal" value="asustados"/>
          <SimplePredicate field="Reseña" operator="equal" value="asustadas"/>
          <SimplePredicate field="Reseña" operator="equal" value="asustada"/>
          <SimplePredicate field="Reseña" operator="equal" value="avaricia"/>
          <SimplePredicate field="Reseña" operator="equal" value="caida"/>
          <SimplePredicate field="Reseña" operator="equal" value="confusion"/>
          <SimplePredicate field="Reseña" operator="equal" value="conmocion"/>
          <SimplePredicate field="Reseña" operator="equal" value="conspiracion"/>
          <SimplePredicate field="Reseña" operator="equal" value="contradiccion"/>
          <SimplePredicate field="Reseña" operator="equal" value="corrupcion"/>
          <SimplePredicate field="Reseña" operator="equal" value="crueldad"/>
          <SimplePredicate field="Reseña" operator="equal" value="culpa"/>
          <SimplePredicate field="Reseña" operator="equal" value="decadencia"/>
          <SimplePredicate field="Reseña" operator="equal" value="declive"/>
          <SimplePredicate field="Reseña" operator="equal" value="defecto"/>
          <SimplePredicate field="Reseña" operator="equal" value="derrota"/>
          <SimplePredicate field="Reseña" operator="equal" value="derrotado"/>
          <SimplePredicate field="Reseña" operator="equal" value="derrotada"/>
          <SimplePredicate field="Reseña" operator="equal" value="derrotadas"/>
          <SimplePredicate field="Reseña" operator="equal" value="derrotados"/>
          <SimplePredicate field="Reseña" operator="equal" value="desalentador"/>
          <SimplePredicate field="Reseña" operator="equal" value="desalentadora"/>
          <SimplePredicate field="Reseña" operator="equal" value="desalentadores"/>
          <SimplePredicate field="Reseña" operator="equal" value="desalentadoras"/>
          <SimplePredicate field="Reseña" operator="equal" value="desalentados"/>
          <SimplePredicate field="Reseña" operator="equal" value="desalentadas"/>
          <SimplePredicate field="Reseña" operator="equal" value="desalentado"/>
          <SimplePredicate field="Reseña" operator="equal" value="desalentada"/>
          <SimplePredicate field="Reseña" operator="equal" value="desastre"/>
          <SimplePredicate field="Reseña" operator="equal" value="desconfianza"/>
          <SimplePredicate field="Reseña" operator="equal" value="desesperacion"/>
          <SimplePredicate field="Reseña" operator="equal" value="desmoralizacion"/>
          <SimplePredicate field="Reseña" operator="equal" value="destruccion"/>
          <SimplePredicate field="Reseña" operator="equal" value="detesta"/>
          <SimplePredicate field="Reseña" operator="equal" value="detesto"/>
          <SimplePredicate field="Reseña" operator="equal" value="detestan"/>
          <SimplePredicate field="Reseña" operator="equal" value="detestas"/>
          <SimplePredicate field="Reseña" operator="equal" value="detestamos"/>
          <SimplePredicate field="Reseña" operator="equal" value="detestados"/>
          <SimplePredicate field="Reseña" operator="equal" value="detestadas"/>
          <SimplePredicate field="Reseña" operator="equal" value="fobia"/>
          <SimplePredicate field="Reseña" operator="equal" value="duda"/>
          <SimplePredicate field="Reseña" operator="equal" value="envidia"/>
          <SimplePredicate field="Reseña" operator="equal" value="frustracion"/>
          <SimplePredicate field="Reseña" operator="equal" value="frustrante"/>
          <SimplePredicate field="Reseña" operator="equal" value="hostilidad"/>
          <SimplePredicate field="Reseña" operator="equal" value="impotencia"/>
          <SimplePredicate field="Reseña" operator="equal" value="ignorancia"/>
          <SimplePredicate field="Reseña" operator="equal" value="incompetente"/>
          <SimplePredicate field="Reseña" operator="equal" value="incompetentes"/>
          <SimplePredicate field="Reseña" operator="equal" value="incompetencia"/>
          <SimplePredicate field="Reseña" operator="equal" value="indiferente"/>
          <SimplePredicate field="Reseña" operator="equal" value="indiferentes"/>
          <SimplePredicate field="Reseña" operator="equal" value="indiferencia"/>
          <SimplePredicate field="Reseña" operator="equal" value="ineficientes"/>
          <SimplePredicate field="Reseña" operator="equal" value="ineficiente"/>
          <SimplePredicate field="Reseña" operator="equal" value="ineficiencia"/>
          <SimplePredicate field="Reseña" operator="equal" value="inestable"/>
          <SimplePredicate field="Reseña" operator="equal" value="inestabilidad"/>
          <SimplePredicate field="Reseña" operator="equal" value="inestables"/>
          <SimplePredicate field="Reseña" operator="equal" value="infeliz"/>
          <SimplePredicate field="Reseña" operator="equal" value="infelices"/>
          <SimplePredicate field="Reseña" operator="equal" value="infelicidad"/>
          <SimplePredicate field="Reseña" operator="equal" value="insolente"/>
          <SimplePredicate field="Reseña" operator="equal" value="insolentes"/>
          <SimplePredicate field="Reseña" operator="equal" value="insolencia"/>
          <SimplePredicate field="Reseña" operator="equal" value="insulto"/>
          <SimplePredicate field="Reseña" operator="equal" value="insultos"/>
          <SimplePredicate field="Reseña" operator="equal" value="insultes"/>
          <SimplePredicate field="Reseña" operator="equal" value="molestar"/>
          <SimplePredicate field="Reseña" operator="equal" value="molesto"/>
          <SimplePredicate field="Reseña" operator="equal" value="molesta"/>
          <SimplePredicate field="Reseña" operator="equal" value="molestos"/>
          <SimplePredicate field="Reseña" operator="equal" value="molestas"/>
          <SimplePredicate field="Reseña" operator="equal" value="malestar"/>
          <SimplePredicate field="Reseña" operator="equal" value="malhumorado"/>
          <SimplePredicate field="Reseña" operator="equal" value="malhumorados"/>
          <SimplePredicate field="Reseña" operator="equal" value="malhumoradas"/>
          <SimplePredicate field="Reseña" operator="equal" value="malhumorada"/>
          <SimplePredicate field="Reseña" operator="equal" value="maldad"/>
          <SimplePredicate field="Reseña" operator="equal" value="manipulado"/>
          <SimplePredicate field="Reseña" operator="equal" value="manipulada"/>
          <SimplePredicate field="Reseña" operator="equal" value="manipulador"/>
          <SimplePredicate field="Reseña" operator="equal" value="manipuladores"/>
          <SimplePredicate field="Reseña" operator="equal" value="manipuladoras"/>
          <SimplePredicate field="Reseña" operator="equal" value="manipulas"/>
          <SimplePredicate field="Reseña" operator="equal" value="manipulaste"/>
          <SimplePredicate field="Reseña" operator="equal" value="manipularon"/>
          <SimplePredicate field="Reseña" operator="equal" value="monotono"/>
          <SimplePredicate field="Reseña" operator="equal" value="monotonia"/>
          <SimplePredicate field="Reseña" operator="equal" value="monotona"/>
          <SimplePredicate field="Reseña" operator="equal" value="opresion"/>
          <SimplePredicate field="Reseña" operator="equal" value="opresor"/>
          <SimplePredicate field="Reseña" operator="equal" value="opresora"/>
          <SimplePredicate field="Reseña" operator="equal" value="opresores"/>
          <SimplePredicate field="Reseña" operator="equal" value="opresoras"/>
          <SimplePredicate field="Reseña" operator="equal" value="preocupado"/>
          <SimplePredicate field="Reseña" operator="equal" value="preocupada"/>
          <SimplePredicate field="Reseña" operator="equal" value="preocupadas"/>
          <SimplePredicate field="Reseña" operator="equal" value="preocupados"/>
          <SimplePredicate field="Reseña" operator="equal" value="preocupacion"/>
          <SimplePredicate field="Reseña" operator="equal" value="perdido"/>
          <SimplePredicate field="Reseña" operator="equal" value="perdidos"/>
          <SimplePredicate field="Reseña" operator="equal" value="perdida"/>
          <SimplePredicate field="Reseña" operator="equal" value="perdidas"/>
          <SimplePredicate field="Reseña" operator="equal" value="perdi"/>
          <SimplePredicate field="Reseña" operator="equal" value="perdiste"/>
          <SimplePredicate field="Reseña" operator="equal" value="perdimos"/>
          <SimplePredicate field="Reseña" operator="equal" value="perdio"/>
          <SimplePredicate field="Reseña" operator="equal" value="repulsivo"/>
          <SimplePredicate field="Reseña" operator="equal" value="repulsiva"/>
          <SimplePredicate field="Reseña" operator="equal" value="repulsion"/>
          <SimplePredicate field="Reseña" operator="equal" value="riesgo"/>
          <SimplePredicate field="Reseña" operator="equal" value="riesgoso"/>
          <SimplePredicate field="Reseña" operator="equal" value="riesgosa"/>
          <SimplePredicate field="Reseña" operator="equal" value="arriegado"/>
          <SimplePredicate field="Reseña" operator="equal" value="arriegada"/>
          <SimplePredicate field="Reseña" operator="equal" value="rencor"/>
          <SimplePredicate field="Reseña" operator="equal" value="rencorosa"/>
          <SimplePredicate field="Reseña" operator="equal" value="rencoroso"/>
          <SimplePredicate field="Reseña" operator="equal" value="sufrimiento"/>
          <SimplePredicate field="Reseña" operator="equal" value="sufriendo"/>
          <SimplePredicate field="Reseña" operator="equal" value="sufri"/>
          <SimplePredicate field="Reseña" operator="equal" value="sufrido"/>
          <SimplePredicate field="Reseña" operator="equal" value="sufriste"/>
          <SimplePredicate field="Reseña" operator="equal" value="vanidad"/>
          <SimplePredicate field="Reseña" operator="equal" value="vanidoso"/>
          <SimplePredicate field="Reseña" operator="equal" value="vanidosa"/>
          <SimplePredicate field="Reseña" operator="equal" value="abatido"/>
          <SimplePredicate field="Reseña" operator="equal" value="abatida"/>
          <SimplePredicate field="Reseña" operator="equal" value="ahogado"/>
          <SimplePredicate field="Reseña" operator="equal" value="ahogada"/>
          <SimplePredicate field="Reseña" operator="equal" value="ahogandose"/>
          <SimplePredicate field="Reseña" operator="equal" value="ahogandote"/>
          <SimplePredicate field="Reseña" operator="equal" value="atormenta"/>
          <SimplePredicate field="Reseña" operator="equal" value="atormentado"/>
          <SimplePredicate field="Reseña" operator="equal" value="atormentada"/>
          <SimplePredicate field="Reseña" operator="equal" value="atormentador"/>
          <SimplePredicate field="Reseña" operator="equal" value="atormentadora"/>
          <SimplePredicate field="Reseña" operator="equal" value="atormentadores"/>
          <SimplePredicate field="Reseña" operator="equal" value="atormentadoras"/>
          <SimplePredicate field="Reseña" operator="equal" value="pesimista"/>
          <SimplePredicate field="Reseña" operator="equal" value="pesimo"/>
          <SimplePredicate field="Reseña" operator="equal" value="pesima"/>
          <SimplePredicate field="Reseña" operator="equal" value="engañado"/>
          <SimplePredicate field="Reseña" operator="equal" value="engañada"/>
          <SimplePredicate field="Reseña" operator="equal" value="engañoso"/>
          <SimplePredicate field="Reseña" operator="equal" value="estafa"/>
          <SimplePredicate field="Reseña" operator="equal" value="estafado"/>
          <SimplePredicate field="Reseña" operator="equal" value="estafada"/>
          <SimplePredicate field="Reseña" operator="equal" value="inmunda"/>
          <SimplePredicate field="Reseña" operator="equal" value="inmundicia"/>
          <SimplePredicate field="Reseña" operator="equal" value="inmundo"/>
          <SimplePredicate field="Reseña" operator="equal" value="aversion"/>
          <SimplePredicate field="Reseña" operator="equal" value="melancolia"/>
          <SimplePredicate field="Reseña" operator="equal" value="melancolica"/>
          <SimplePredicate field="Reseña" operator="equal" value="melancolico"/>
          <SimplePredicate field="Reseña" operator="equal" value="melancolicas"/>
          <SimplePredicate field="Reseña" operator="equal" value="melancolicos"/>
          <SimplePredicate field="Reseña" operator="equal" value="sinverguenza"/>
          <SimplePredicate field="Reseña" operator="equal" value="sinverguenzas"/>
          <SimplePredicate field="Reseña" operator="equal" value="desvergonzado"/>
          <SimplePredicate field="Reseña" operator="equal" value="desvergonzada"/>
          <SimplePredicate field="Reseña" operator="equal" value="desvergonzados"/>
          <SimplePredicate field="Reseña" operator="equal" value="desvergonzadas"/>
          <SimplePredicate field="Reseña" operator="equal" value="vulnerable"/>
          <SimplePredicate field="Reseña" operator="equal" value="vulnerado"/>
          <SimplePredicate field="Reseña" operator="equal" value="vulnerada"/>
          <SimplePredicate field="Reseña" operator="equal" value="vulnerados"/>
          <SimplePredicate field="Reseña" operator="equal" value="vulneradas"/>
          <SimplePredicate field="Reseña" operator="equal" value="paranoico"/>
          <SimplePredicate field="Reseña" operator="equal" value="paranoica"/>
          <SimplePredicate field="Reseña" operator="equal" value="paranoia"/>
          <SimplePredicate field="Reseña" operator="equal" value="paranoicos"/>
          <SimplePredicate field="Reseña" operator="equal" value="paranoicas"/>
          <SimplePredicate field="Reseña" operator="equal" value="agravio"/>
          <SimplePredicate field="Reseña" operator="equal" value="agraviado"/>
          <SimplePredicate field="Reseña" operator="equal" value="agraviada"/>
          <SimplePredicate field="Reseña" operator="equal" value="agraviados"/>
          <SimplePredicate field="Reseña" operator="equal" value="agraviadas"/>
          <SimplePredicate field="Reseña" operator="equal" value="desaire"/>
          <SimplePredicate field="Reseña" operator="equal" value="desairado"/>
          <SimplePredicate field="Reseña" operator="equal" value="desairada"/>
          <SimplePredicate field="Reseña" operator="equal" value="desairados"/>
          <SimplePredicate field="Reseña" operator="equal" value="desairadas"/>
          <SimplePredicate field="Reseña" operator="equal" value="hostil"/>
          <SimplePredicate field="Reseña" operator="equal" value="hostilidad"/>
          <SimplePredicate field="Reseña" operator="equal" value="hostiles"/>
          <SimplePredicate field="Reseña" operator="equal" value="hostiles"/>
          <SimplePredicate field="Reseña" operator="equal" value="trafico"/>
          <SimplePredicate field="Reseña" operator="equal" value="solitario"/>
          <SimplePredicate field="Reseña" operator="equal" value="temeroso"/>
          <SimplePredicate field="Reseña" operator="equal" value="abandonado"/>
          <SimplePredicate field="Reseña" operator="equal" value="abandonada"/>
          <SimplePredicate field="Reseña" operator="equal" value="afliccion"/>
          <SimplePredicate field="Reseña" operator="equal" value="alarmante"/>
          <SimplePredicate field="Reseña" operator="equal" value="apenado"/>
          <SimplePredicate field="Reseña" operator="equal" value="abuso"/>
          <SimplePredicate field="Reseña" operator="equal" value="abusivo"/>
          <SimplePredicate field="Reseña" operator="equal" value="abusiva"/>
          <SimplePredicate field="Reseña" operator="equal" value="abusivas"/>
          <SimplePredicate field="Reseña" operator="equal" value="abusivos"/>
          <SimplePredicate field="Reseña" operator="equal" value="atemorizante"/>
          <SimplePredicate field="Reseña" operator="equal" value="avergonzado"/>
          <SimplePredicate field="Reseña" operator="equal" value="aburrimiento"/>
          <SimplePredicate field="Reseña" operator="equal" value="colapsado"/>
          <SimplePredicate field="Reseña" operator="equal" value="consternado"/>
          <SimplePredicate field="Reseña" operator="equal" value="desesperante"/>
          <SimplePredicate field="Reseña" operator="equal" value="empeorado"/>
          <SimplePredicate field="Reseña" operator="equal" value="enfadado"/>
          <SimplePredicate field="Reseña" operator="equal" value="escalofriante"/>
          <SimplePredicate field="Reseña" operator="equal" value="herido"/>
          <SimplePredicate field="Reseña" operator="equal" value="odioso"/>
          <SimplePredicate field="Reseña" operator="equal" value="oprimido"/>
          <SimplePredicate field="Reseña" operator="equal" value="panico"/>
          <SimplePredicate field="Reseña" operator="equal" value="preocupante"/>
          <SimplePredicate field="Reseña" operator="equal" value="sarcastico"/>
          <SimplePredicate field="Reseña" operator="equal" value="calor"/>
          <SimplePredicate field="Reseña" operator="equal" value="frio"/>
          <SimplePredicate field="Reseña" operator="equal" value="cara"/>
          <SimplePredicate field="Reseña" operator="equal" value="costosa"/>
          <SimplePredicate field="Reseña" operator="equal" value="pervertido"/>
          <SimplePredicate field="Reseña" operator="equal" value="pervertida"/>
          <SimplePredicate field="Reseña" operator="equal" value="perverso"/>
          <SimplePredicate field="Reseña" operator="equal" value="perversion"/>
          <SimplePredicate field="Reseña" operator="equal" value="perversa"/>
          <SimplePredicate field="Reseña" operator="equal" value="perturbado"/>
          <SimplePredicate field="Reseña" operator="equal" value="perturbador"/>
          <SimplePredicate field="Reseña" operator="equal" value="perturbadores"/>
          <SimplePredicate field="Reseña" operator="equal" value="perturbadoras"/>
          <SimplePredicate field="Reseña" operator="equal" value="abominable"/>
          <SimplePredicate field="Reseña" operator="equal" value="aburrido"/>
          <SimplePredicate field="Reseña" operator="equal" value="abuso"/>
          <SimplePredicate field="Reseña" operator="equal" value="afectado"/>
          <SimplePredicate field="Reseña" operator="equal" value="agotado"/>
          <SimplePredicate field="Reseña" operator="equal" value="alarma"/>
          <SimplePredicate field="Reseña" operator="equal" value="alterado"/>
          <SimplePredicate field="Reseña" operator="equal" value="amargado"/>
          <SimplePredicate field="Reseña" operator="equal" value="angustiado"/>
          <SimplePredicate field="Reseña" operator="equal" value="aniquilado"/>
          <SimplePredicate field="Reseña" operator="equal" value="apatico"/>
          <SimplePredicate field="Reseña" operator="equal" value="arrogante"/>
          <SimplePredicate field="Reseña" operator="equal" value="atonito"/>
          <SimplePredicate field="Reseña" operator="equal" value="banal"/>
          <SimplePredicate field="Reseña" operator="equal" value="basto"/>
          <SimplePredicate field="Reseña" operator="equal" value="bloqueado"/>
          <SimplePredicate field="Reseña" operator="equal" value="brutal"/>
          <SimplePredicate field="Reseña" operator="equal" value="caotico"/>
          <SimplePredicate field="Reseña" operator="equal" value="cansancio"/>
          <SimplePredicate field="Reseña" operator="equal" value="caotico"/>
          <SimplePredicate field="Reseña" operator="equal" value="carente"/>
          <SimplePredicate field="Reseña" operator="equal" value="cansino"/>
          <SimplePredicate field="Reseña" operator="equal" value="cobarde"/>
          <SimplePredicate field="Reseña" operator="equal" value="conmocionado"/>
          <SimplePredicate field="Reseña" operator="equal" value="confusion"/>
          <SimplePredicate field="Reseña" operator="equal" value="contundente"/>
          <SimplePredicate field="Reseña" operator="equal" value="desagradable"/>
          <SimplePredicate field="Reseña" operator="equal" value="desbordado"/>
          <SimplePredicate field="Reseña" operator="equal" value="desconsolado"/>
          <SimplePredicate field="Reseña" operator="equal" value="desilusionado"/>
          <SimplePredicate field="Reseña" operator="equal" value="desesperante"/>
          <SimplePredicate field="Reseña" operator="equal" value="desesperanzado"/>
          <SimplePredicate field="Reseña" operator="equal" value="desgarrador"/>
          <SimplePredicate field="Reseña" operator="equal" value="desgaste"/>
          <SimplePredicate field="Reseña" operator="equal" value="desorden"/>
          <SimplePredicate field="Reseña" operator="equal" value="desplazado"/>
          <SimplePredicate field="Reseña" operator="equal" value="desprotegido"/>
          <SimplePredicate field="Reseña" operator="equal" value="desquiciado"/>
          <SimplePredicate field="Reseña" operator="equal" value="desperdicio"/>
          <SimplePredicate field="Reseña" operator="equal" value="despreciable"/>
          <SimplePredicate field="Reseña" operator="equal" value="desquilibrado"/>
          <SimplePredicate field="Reseña" operator="equal" value="destrozado"/>
          <SimplePredicate field="Reseña" operator="equal" value="destrozos"/>
          <SimplePredicate field="Reseña" operator="equal" value="desvinculado"/>
          <SimplePredicate field="Reseña" operator="equal" value="dificultoso"/>
          <SimplePredicate field="Reseña" operator="equal" value="discriminatorio"/>
          <SimplePredicate field="Reseña" operator="equal" value="disgusto"/>
          <SimplePredicate field="Reseña" operator="equal" value="duro"/>
          <SimplePredicate field="Reseña" operator="equal" value="efimero"/>
          <SimplePredicate field="Reseña" operator="equal" value="embarrado"/>
          <SimplePredicate field="Reseña" operator="equal" value="enfermo"/>
          <SimplePredicate field="Reseña" operator="equal" value="enfadado"/>
          <SimplePredicate field="Reseña" operator="equal" value="enloquecido"/>
          <SimplePredicate field="Reseña" operator="equal" value="enloquecedor"/>
          <SimplePredicate field="Reseña" operator="equal" value="erroneo"/>
          <SimplePredicate field="Reseña" operator="equal" value="estancado"/>
          <SimplePredicate field="Reseña" operator="equal" value="estresado"/>
          <SimplePredicate field="Reseña" operator="equal" value="exasperado"/>
          <SimplePredicate field="Reseña" operator="equal" value="fracaso"/>
          <SimplePredicate field="Reseña" operator="equal" value="frustrado"/>
          <SimplePredicate field="Reseña" operator="equal" value="gelido"/>
          <SimplePredicate field="Reseña" operator="equal" value="inaceptable"/>
          <SimplePredicate field="Reseña" operator="equal" value="inalcanzable"/>
          <SimplePredicate field="Reseña" operator="equal" value="inapropiado"/>
          <SimplePredicate field="Reseña" operator="equal" value="incompetente"/>
          <SimplePredicate field="Reseña" operator="equal" value="inconformidad"/>
          <SimplePredicate field="Reseña" operator="equal" value="indeseable"/>
          <SimplePredicate field="Reseña" operator="equal" value="ineficaz"/>
          <SimplePredicate field="Reseña" operator="equal" value="ineficiente"/>
          <SimplePredicate field="Reseña" operator="equal" value="inestable"/>
          <SimplePredicate field="Reseña" operator="equal" value="insalvable"/>
          <SimplePredicate field="Reseña" operator="equal" value="insensible"/>
          <SimplePredicate field="Reseña" operator="equal" value="insufrible"/>
          <SimplePredicate field="Reseña" operator="equal" value="insoportable"/>
          <SimplePredicate field="Reseña" operator="equal" value="insuficiente"/>
          <SimplePredicate field="Reseña" operator="equal" value="inutil"/>
          <SimplePredicate field="Reseña" operator="equal" value="irreparable"/>
          <SimplePredicate field="Reseña" operator="equal" value="irritable"/>
          <SimplePredicate field="Reseña" operator="equal" value="irritado"/>
          <SimplePredicate field="Reseña" operator="equal" value="lamentable"/>
          <SimplePredicate field="Reseña" operator="equal" value="lento"/>
          <SimplePredicate field="Reseña" operator="equal" value="limitado"/>
          <SimplePredicate field="Reseña" operator="equal" value="mediocre"/>
          <SimplePredicate field="Reseña" operator="equal" value="menospreciado"/>
          <SimplePredicate field="Reseña" operator="equal" value="negativo"/>
          <SimplePredicate field="Reseña" operator="equal" value="obsoleto"/>
          <SimplePredicate field="Reseña" operator="equal" value="perdida"/>
          <SimplePredicate field="Reseña" operator="equal" value="pesimista"/>
          <SimplePredicate field="Reseña" operator="equal" value="preocupante"/>
          <SimplePredicate field="Reseña" operator="equal" value="rechazado"/>
          <SimplePredicate field="Reseña" operator="equal" value="sufrimiento"/>
          <SimplePredicate field="Reseña" operator="equal" value="torpe"/>
          <SimplePredicate field="Reseña" operator="equal" value="vulnerable"/>
          <SimplePredicate field="Reseña" operator="equal" value="abatido"/>
          <SimplePredicate field="Reseña" operator="equal" value="acusador"/>
          <SimplePredicate field="Reseña" operator="equal" value="aterrador"/>
          <SimplePredicate field="Reseña" operator="equal" value="atormentado"/>
          <SimplePredicate field="Reseña" operator="equal" value="avaro"/>
          <SimplePredicate field="Reseña" operator="equal" value="basto"/>
          <SimplePredicate field="Reseña" operator="equal" value="cauteloso"/>
          <SimplePredicate field="Reseña" operator="equal" value="censurable"/>
          <SimplePredicate field="Reseña" operator="equal" value="conflictivo"/>
          <SimplePredicate field="Reseña" operator="equal" value="corrupto"/>
          <SimplePredicate field="Reseña" operator="equal" value="bajo"/>
          <SimplePredicate field="Reseña" operator="equal" value="critico"/>
          <SimplePredicate field="Reseña" operator="equal" value="decepcionante"/>
          <SimplePredicate field="Reseña" operator="equal" value="deficiente"/>
          <SimplePredicate field="Reseña" operator="equal" value="defraudado"/>
          <SimplePredicate field="Reseña" operator="equal" value="desalentador"/>
          <SimplePredicate field="Reseña" operator="equal" value="desanimado"/>
          <SimplePredicate field="Reseña" operator="equal" value="desbordante"/>
          <SimplePredicate field="Reseña" operator="equal" value="desconcertante"/>
          <SimplePredicate field="Reseña" operator="equal" value="descontrolado"/>
          <SimplePredicate field="Reseña" operator="equal" value="desesperado"/>
          <SimplePredicate field="Reseña" operator="equal" value="desgarrado"/>
          <SimplePredicate field="Reseña" operator="equal" value="desilusionante"/>
          <SimplePredicate field="Reseña" operator="equal" value="desmotivado"/>
          <SimplePredicate field="Reseña" operator="equal" value="desorganizado"/>
          <SimplePredicate field="Reseña" operator="equal" value="desproporcionado"/>
          <SimplePredicate field="Reseña" operator="equal" value="desquiciado"/>
          <SimplePredicate field="Reseña" operator="equal" value="destruido"/>
          <SimplePredicate field="Reseña" operator="equal" value="desvalido"/>
          <SimplePredicate field="Reseña" operator="equal" value="desviado"/>
          <SimplePredicate field="Reseña" operator="equal" value="destrozado"/>
          <SimplePredicate field="Reseña" operator="equal" value="devaluado"/>
          <SimplePredicate field="Reseña" operator="equal" value="doloroso"/>
          <SimplePredicate field="Reseña" operator="equal" value="duro"/>
          <SimplePredicate field="Reseña" operator="equal" value="enajenado"/>
          <SimplePredicate field="Reseña" operator="equal" value="encolerizado"/>
          <SimplePredicate field="Reseña" operator="equal" value="enemistado"/>
          <SimplePredicate field="Reseña" operator="equal" value="enervado"/>
          <SimplePredicate field="Reseña" operator="equal" value="enfurecido"/>
          <SimplePredicate field="Reseña" operator="equal" value="enlazado"/>
          <SimplePredicate field="Reseña" operator="equal" value="enloquecido"/>
          <SimplePredicate field="Reseña" operator="equal" value="enrevesado"/>
          <SimplePredicate field="Reseña" operator="equal" value="esquivo"/>
          <SimplePredicate field="Reseña" operator="equal" value="estancado"/>
          <SimplePredicate field="Reseña" operator="equal" value="evasivo"/>
          <SimplePredicate field="Reseña" operator="equal" value="exasperante"/>
          <SimplePredicate field="Reseña" operator="equal" value="excesivo"/>
          <SimplePredicate field="Reseña" operator="equal" value="frustrante"/>
          <SimplePredicate field="Reseña" operator="equal" value="hastiado"/>
          <SimplePredicate field="Reseña" operator="equal" value="hostil"/>
          <SimplePredicate field="Reseña" operator="equal" value="improductivo"/>
          <SimplePredicate field="Reseña" operator="equal" value="inaceptable"/>
          <SimplePredicate field="Reseña" operator="equal" value="incomodo"/>
          <SimplePredicate field="Reseña" operator="equal" value="incompetente"/>
          <SimplePredicate field="Reseña" operator="equal" value="inconveniente"/>
          <SimplePredicate field="Reseña" operator="equal" value="indeseable"/>
          <SimplePredicate field="Reseña" operator="equal" value="indiferente"/>
          <SimplePredicate field="Reseña" operator="equal" value="indigno"/>
          <SimplePredicate field="Reseña" operator="equal" value="injusto"/>
          <SimplePredicate field="Reseña" operator="equal" value="insatisfecho"/>
          <SimplePredicate field="Reseña" operator="equal" value="insensible"/>
          <SimplePredicate field="Reseña" operator="equal" value="insoportable"/>
          <SimplePredicate field="Reseña" operator="equal" value="insufrible"/>
          <SimplePredicate field="Reseña" operator="equal" value="intolerante"/>
          <SimplePredicate field="Reseña" operator="equal" value="irregular"/>
          <SimplePredicate field="Reseña" operator="equal" value="irreversible"/>
          <SimplePredicate field="Reseña" operator="equal" value="irrespetuoso"/>
          <SimplePredicate field="Reseña" operator="equal" value="irritable"/>
          <SimplePredicate field="Reseña" operator="equal" value="irritado"/>
          <SimplePredicate field="Reseña" operator="equal" value="malhumorado"/>
          <SimplePredicate field="Reseña" operator="equal" value="maltratado"/>
          <SimplePredicate field="Reseña" operator="equal" value="mediocre"/>
          <SimplePredicate field="Reseña" operator="equal" value="mentiroso"/>
          <SimplePredicate field="Reseña" operator="equal" value="miserable"/>
          <SimplePredicate field="Reseña" operator="equal" value="molesto"/>
          <SimplePredicate field="Reseña" operator="equal" value="negligente"/>
          <SimplePredicate field="Reseña" operator="equal" value="nefasto"/>
          <SimplePredicate field="Reseña" operator="equal" value="nulo"/>
          <SimplePredicate field="Reseña" operator="equal" value="odiado"/>
          <SimplePredicate field="Reseña" operator="equal" value="olvidado"/>
          <SimplePredicate field="Reseña" operator="equal" value="pesado"/>
          <SimplePredicate field="Reseña" operator="equal" value="perverso"/>
          <SimplePredicate field="Reseña" operator="equal" value="pobre"/>
          <SimplePredicate field="Reseña" operator="equal" value="problema"/>
          <SimplePredicate field="Reseña" operator="equal" value="quebrado"/>
          <SimplePredicate field="Reseña" operator="equal" value="rencoroso"/>
          <SimplePredicate field="Reseña" operator="equal" value="resentido"/>
          <SimplePredicate field="Reseña" operator="equal" value="robado"/>
          <SimplePredicate field="Reseña" operator="equal" value="ruinoso"/>
          <SimplePredicate field="Reseña" operator="equal" value="sucio"/>
          <SimplePredicate field="Reseña" operator="equal" value="sufrido"/>
          <SimplePredicate field="Reseña" operator="equal" value="trastornado"/>
          <SimplePredicate field="Reseña" operator="equal" value="traicionero"/>
          <SimplePredicate field="Reseña" operator="equal" value="torpe"/>
          <SimplePredicate field="Reseña" operator="equal" value="triste"/>
          <SimplePredicate field="Reseña" operator="equal" value="tumultuoso"/>
          <SimplePredicate field="Reseña" operator="equal" value="vergonzoso"/>
          <SimplePredicate field="Reseña" operator="equal" value="abominable"/>
          <SimplePredicate field="Reseña" operator="equal" value="abuso"/>
          <SimplePredicate field="Reseña" operator="equal" value="agotado"/>
          <SimplePredicate field="Reseña" operator="equal" value="alarmante"/>
          <SimplePredicate field="Reseña" operator="equal" value="amargo"/>
          <SimplePredicate field="Reseña" operator="equal" value="aniquilado"/>
          <SimplePredicate field="Reseña" operator="equal" value="antipatico"/>
          <SimplePredicate field="Reseña" operator="equal" value="apatico"/>
          <SimplePredicate field="Reseña" operator="equal" value="aprehensivo"/>
          <SimplePredicate field="Reseña" operator="equal" value="apretado"/>
          <SimplePredicate field="Reseña" operator="equal" value="arrogante"/>
          <SimplePredicate field="Reseña" operator="equal" value="atrasado"/>
          <SimplePredicate field="Reseña" operator="equal" value="atroz"/>
          <SimplePredicate field="Reseña" operator="equal" value="bellaco"/>
          <SimplePredicate field="Reseña" operator="equal" value="berrinche"/>
          <SimplePredicate field="Reseña" operator="equal" value="bochorno"/>
          <SimplePredicate field="Reseña" operator="equal" value="cansado"/>
          <SimplePredicate field="Reseña" operator="equal" value="caotico"/>
          <SimplePredicate field="Reseña" operator="equal" value="cegado"/>
          <SimplePredicate field="Reseña" operator="equal" value="chocante"/>
          <SimplePredicate field="Reseña" operator="equal" value="cinico"/>
          <SimplePredicate field="Reseña" operator="equal" value="complicado"/>
          <SimplePredicate field="Reseña" operator="equal" value="contaminado"/>
          <SimplePredicate field="Reseña" operator="equal" value="corrupto"/>
          <SimplePredicate field="Reseña" operator="equal" value="cruel"/>
          <SimplePredicate field="Reseña" operator="equal" value="danoso"/>
          <SimplePredicate field="Reseña" operator="equal" value="decaido"/>
          <SimplePredicate field="Reseña" operator="equal" value="desacertado"/>
          <SimplePredicate field="Reseña" operator="equal" value="desadaptado"/>
          <SimplePredicate field="Reseña" operator="equal" value="desafiante"/>
          <SimplePredicate field="Reseña" operator="equal" value="desalinado"/>
          <SimplePredicate field="Reseña" operator="equal" value="desapercibido"/>
          <SimplePredicate field="Reseña" operator="equal" value="desbordado"/>
          <SimplePredicate field="Reseña" operator="equal" value="descontrol"/>
          <SimplePredicate field="Reseña" operator="equal" value="desgaste"/>
          <SimplePredicate field="Reseña" operator="equal" value="desinteresado"/>
          <SimplePredicate field="Reseña" operator="equal" value="desmesurado"/>
          <SimplePredicate field="Reseña" operator="equal" value="desnorteado"/>
          <SimplePredicate field="Reseña" operator="equal" value="desolado"/>
          <SimplePredicate field="Reseña" operator="equal" value="desorganizado"/>
          <SimplePredicate field="Reseña" operator="equal" value="despreciado"/>
          <SimplePredicate field="Reseña" operator="equal" value="desprotegido"/>
          <SimplePredicate field="Reseña" operator="equal" value="desquilibrado"/>
          <SimplePredicate field="Reseña" operator="equal" value="desviado"/>
          <SimplePredicate field="Reseña" operator="equal" value="desgarrador"/>
          <SimplePredicate field="Reseña" operator="equal" value="desgaste"/>
          <SimplePredicate field="Reseña" operator="equal" value="desmotivado"/>
          <SimplePredicate field="Reseña" operator="equal" value="despotico"/>
          <SimplePredicate field="Reseña" operator="equal" value="desquiciado"/>
          <SimplePredicate field="Reseña" operator="equal" value="desperdiciado"/>
          <SimplePredicate field="Reseña" operator="equal" value="despectivo"/>
          <SimplePredicate field="Reseña" operator="equal" value="despiadado"/>
          <SimplePredicate field="Reseña" operator="equal" value="desventajoso"/>
          <SimplePredicate field="Reseña" operator="equal" value="dificil"/>
          <SimplePredicate field="Reseña" operator="equal" value="destrozado"/>
          <SimplePredicate field="Reseña" operator="equal" value="desvencijado"/>
          <SimplePredicate field="Reseña" operator="equal" value="desvinculado"/>
          <SimplePredicate field="Reseña" operator="equal" value="distorsionado"/>
          <SimplePredicate field="Reseña" operator="equal" value="dolor"/>
          <SimplePredicate field="Reseña" operator="equal" value="encharcado"/>
          <SimplePredicate field="Reseña" operator="equal" value="enfado"/>
          <SimplePredicate field="Reseña" operator="equal" value="enloquecido"/>
          <SimplePredicate field="Reseña" operator="equal" value="exasperante"/>
          <SimplePredicate field="Reseña" operator="equal" value="fragil"/>
          <SimplePredicate field="Reseña" operator="equal" value="frustrante"/>
          <SimplePredicate field="Reseña" operator="equal" value="funebre"/>
          <SimplePredicate field="Reseña" operator="equal" value="grosero"/>
          <SimplePredicate field="Reseña" operator="equal" value="hundido"/>
          <SimplePredicate field="Reseña" operator="equal" value="inaceptable"/>
          <SimplePredicate field="Reseña" operator="equal" value="inaudito"/>
          <SimplePredicate field="Reseña" operator="equal" value="incompetente"/>
          <SimplePredicate field="Reseña" operator="equal" value="incoherente"/>
          <SimplePredicate field="Reseña" operator="equal" value="inconsciente"/>
          <SimplePredicate field="Reseña" operator="equal" value="indiferente"/>
          <SimplePredicate field="Reseña" operator="equal" value="indigno"/>
          <SimplePredicate field="Reseña" operator="equal" value="ineficaz"/>
          <SimplePredicate field="Reseña" operator="equal" value="inestable"/>
          <SimplePredicate field="Reseña" operator="equal" value="insensible"/>
          <SimplePredicate field="Reseña" operator="equal" value="insignificante"/>
          <SimplePredicate field="Reseña" operator="equal" value="insostenible"/>
          <SimplePredicate field="Reseña" operator="equal" value="intolerable"/>
          <SimplePredicate field="Reseña" operator="equal" value="irreparable"/>
          <SimplePredicate field="Reseña" operator="equal" value="irreconocible"/>
          <SimplePredicate field="Reseña" operator="equal" value="irresponsable"/>
          <SimplePredicate field="Reseña" operator="equal" value="irregular"/>
          <SimplePredicate field="Reseña" operator="equal" value="irritable"/>
          <SimplePredicate field="Reseña" operator="equal" value="irracional"/>
          <SimplePredicate field="Reseña" operator="equal" value="lamentable"/>
          <SimplePredicate field="Reseña" operator="equal" value="lastimoso"/>
          <SimplePredicate field="Reseña" operator="equal" value="lento"/>
          <SimplePredicate field="Reseña" operator="equal" value="malo"/>
          <SimplePredicate field="Reseña" operator="equal" value="malvado"/>
          <SimplePredicate field="Reseña" operator="equal" value="mentiroso"/>
          <SimplePredicate field="Reseña" operator="equal" value="miseria"/>
          <SimplePredicate field="Reseña" operator="equal" value="nefasto"/>
          <SimplePredicate field="Reseña" operator="equal" value="negativo"/>
          <SimplePredicate field="Reseña" operator="equal" value="porqueria"/>
          <SimplePredicate field="Reseña" operator="equal" value="asquerosidad"/>
          <SimplePredicate field="Reseña" operator="equal" value="huevada"/>
          <SimplePredicate field="Reseña" operator="equal" value="bollera"/>
          <SimplePredicate field="Reseña" operator="equal" value="bolo"/>
          <SimplePredicate field="Reseña" operator="equal" value="boludo"/>
          <SimplePredicate field="Reseña" operator="equal" value="cenutrio"/>
          <SimplePredicate field="Reseña" operator="equal" value="chusma"/>
          <SimplePredicate field="Reseña" operator="equal" value="poco"/>
          <SimplePredicate field="Reseña" operator="equal" value="ruidoso"/>
          <SimplePredicate field="Reseña" operator="equal" value="mala"/>
          <SimplePredicate field="Reseña" operator="equal" value="imitacion"/>
          <SimplePredicate field="Reseña" operator="equal" value="dificultades"/>
          <SimplePredicate field="Reseña" operator="equal" value="dificultad"/>
          <SimplePredicate field="Reseña" operator="equal" value="baja"/>
          <SimplePredicate field="Reseña" operator="equal" value="descompuso"/>
          <SimplePredicate field="Reseña" operator="equal" value="decepcionado"/>
          <SimplePredicate field="Reseña" operator="equal" value="decepcionados"/>
          <SimplePredicate field="Reseña" operator="equal" value="decepcionada"/>
          <SimplePredicate field="Reseña" operator="equal" value="decepcionadas"/>
          <SimplePredicate field="Reseña" operator="equal" value="desgasta"/>
          <SimplePredicate field="Reseña" operator="equal" value="daño"/>
          <SimplePredicate field="Reseña" operator="equal" value="mojado"/>
          <SimplePredicate field="Reseña" operator="equal" value="rayado"/>
          <SimplePredicate field="Reseña" operator="equal" value="explica"/>
          <SimplePredicate field="Reseña" operator="equal" value="ensucia"/>
          <SimplePredicate field="Reseña" operator="equal" value="usado"/>
          <SimplePredicate field="Reseña" operator="equal" value="artificial"/>
        </CompoundPredicate>
        <ScoreDistribution value="negativa" recordCount="100000"/>
      </Node>

      <!-- Nodo para emociones positivas -->
      <Node id="2" score="positiva" recordCount="100000">
        <CompoundPredicate booleanOperator="or">
          <SimplePredicate field="Reseña" operator="equal" value="vivo"/>
          <SimplePredicate field="Reseña" operator="equal" value="viva"/>
          <SimplePredicate field="Reseña" operator="equal" value="bueno"/>
          <SimplePredicate field="Reseña" operator="equal" value="escucha"/>
          <SimplePredicate field="Reseña" operator="equal" value="eficiente"/>
          <SimplePredicate field="Reseña" operator="equal" value="escuchas"/>
          <SimplePredicate field="Reseña" operator="equal" value="satisfecho"/>
          <SimplePredicate field="Reseña" operator="equal" value="satisfecha"/>
          <SimplePredicate field="Reseña" operator="equal" value="satisfechas"/>
          <SimplePredicate field="Reseña" operator="equal" value="satisfechos"/>
          <SimplePredicate field="Reseña" operator="equal" value="puedo"/>
          <SimplePredicate field="Reseña" operator="equal" value="respetan"/>
          <SimplePredicate field="Reseña" operator="equal" value="respeten"/>
          <SimplePredicate field="Reseña" operator="equal" value="asombrado"/>
          <SimplePredicate field="Reseña" operator="equal" value="ver"/>
          <SimplePredicate field="Reseña" operator="equal" value="creer"/>
          <SimplePredicate field="Reseña" operator="equal" value="impresionado"/>
          <SimplePredicate field="Reseña" operator="equal" value="justo"/>
          <SimplePredicate field="Reseña" operator="equal" value="etico"/>
          <SimplePredicate field="Reseña" operator="equal" value="tienen"/>
          <SimplePredicate field="Reseña" operator="equal" value="tiene"/>
          <SimplePredicate field="Reseña" operator="equal" value="aliviado"/>
          <SimplePredicate field="Reseña" operator="equal" value="terminado"/>
          <SimplePredicate field="Reseña" operator="equal" value="recuerda"/>
          <SimplePredicate field="Reseña" operator="equal" value="recuerdas"/>
          <SimplePredicate field="Reseña" operator="equal" value="recuerdan"/>
          <SimplePredicate field="Reseña" operator="equal" value="recuerdo"/>
          <SimplePredicate field="Reseña" operator="equal" value="gusto"/>
          <SimplePredicate field="Reseña" operator="equal" value="gusta"/>
          <SimplePredicate field="Reseña" operator="equal" value="buen"/>
          <SimplePredicate field="Reseña" operator="equal" value="ilumina"/>
          <SimplePredicate field="Reseña" operator="equal" value="feliz"/>
          <SimplePredicate field="Reseña" operator="equal" value="bien"/>
          <SimplePredicate field="Reseña" operator="equal" value="util"/>
          <SimplePredicate field="Reseña" operator="equal" value="dejar"/>
          <SimplePredicate field="Reseña" operator="equal" value="hay"/>
          <SimplePredicate field="Reseña" operator="equal" value="sorprendido"/>
          <SimplePredicate field="Reseña" operator="equal" value="sorprendida"/>
          <SimplePredicate field="Reseña" operator="equal" value="convence"/>
          <SimplePredicate field="Reseña" operator="equal" value="convencio"/>
          <SimplePredicate field="Reseña" operator="equal" value="convencido"/>
          <SimplePredicate field="Reseña" operator="equal" value="bonito"/>
          <SimplePredicate field="Reseña" operator="equal" value="bonita"/>
          <SimplePredicate field="Reseña" operator="equal" value="tengo"/>
          <SimplePredicate field="Reseña" operator="equal" value="falta"/>
          <SimplePredicate field="Reseña" operator="equal" value="tienes"/>
          <SimplePredicate field="Reseña" operator="equal" value="voy"/>
          <SimplePredicate field="Reseña" operator="equal" value="barato"/>
          <SimplePredicate field="Reseña" operator="equal" value="contento"/>
          <SimplePredicate field="Reseña" operator="equal" value="contenta"/>
          <SimplePredicate field="Reseña" operator="equal" value="genial"/>
          <SimplePredicate field="Reseña" operator="equal" value="extraordinario"/>
          <SimplePredicate field="Reseña" operator="equal" value="fantastico"/>
          <SimplePredicate field="Reseña" operator="equal" value="excelente"/>
          <SimplePredicate field="Reseña" operator="equal" value="perfecto"/>
          <SimplePredicate field="Reseña" operator="equal" value="positivo"/>
          <SimplePredicate field="Reseña" operator="equal" value="perfecta"/>
          <SimplePredicate field="Reseña" operator="equal" value="suficiente"/>
          <SimplePredicate field="Reseña" operator="equal" value="elegante"/>
          <SimplePredicate field="Reseña" operator="equal" value="podra"/>
          <SimplePredicate field="Reseña" operator="equal" value="podria"/>
          <SimplePredicate field="Reseña" operator="equal" value="mejor"/>
          <SimplePredicate field="Reseña" operator="equal" value="reir"/>
          <SimplePredicate field="Reseña" operator="equal" value="podre"/>
          <SimplePredicate field="Reseña" operator="equal" value="comodo"/>
          <SimplePredicate field="Reseña" operator="equal" value="incredibol"/>
          <SimplePredicate field="Reseña" operator="equal" value="increible"/>
          <SimplePredicate field="Reseña" operator="equal" value="realizar"/>
          <SimplePredicate field="Reseña" operator="equal" value="realizando"/>
          <SimplePredicate field="Reseña" operator="equal" value="realizado"/>
          <SimplePredicate field="Reseña" operator="equal" value="bondad"/>
          <SimplePredicate field="Reseña" operator="equal" value="bondadoso"/>
          <SimplePredicate field="Reseña" operator="equal" value="bondadosa"/>
          <SimplePredicate field="Reseña" operator="equal" value="bondades"/>
          <SimplePredicate field="Reseña" operator="equal" value="alegria"/>
          <SimplePredicate field="Reseña" operator="equal" value="linda"/>
          <SimplePredicate field="Reseña" operator="equal" value="coherente"/>
          <SimplePredicate field="Reseña" operator="equal" value="sorpresa"/>
          <SimplePredicate field="Reseña" operator="equal" value="verte"/>
          <SimplePredicate field="Reseña" operator="equal" value="lindo"/>
          <SimplePredicate field="Reseña" operator="equal" value="seguir"/>
          <SimplePredicate field="Reseña" operator="equal" value="agradecido"/>
          <SimplePredicate field="Reseña" operator="equal" value="agradecida"/>
          <SimplePredicate field="Reseña" operator="equal" value="elegante"/>
          <SimplePredicate field="Reseña" operator="equal" value="tener"/>
          <SimplePredicate field="Reseña" operator="equal" value="fascina"/>
          <SimplePredicate field="Reseña" operator="equal" value="fascinante"/>
          <SimplePredicate field="Reseña" operator="equal" value="fascinado"/>
          <SimplePredicate field="Reseña" operator="equal" value="comprare"/>
          <SimplePredicate field="Reseña" operator="equal" value="sobrio"/>
          <SimplePredicate field="Reseña" operator="equal" value="encanta"/>
          <SimplePredicate field="Reseña" operator="equal" value="encantado"/>
          <SimplePredicate field="Reseña" operator="equal" value="encantada"/>
          <SimplePredicate field="Reseña" operator="equal" value="encantador"/>
          <SimplePredicate field="Reseña" operator="equal" value="encantadora"/>
          <SimplePredicate field="Reseña" operator="equal" value="sorprende"/>
          <SimplePredicate field="Reseña" operator="equal" value="agradable"/>
          <SimplePredicate field="Reseña" operator="equal" value="sorprendente"/>
          <SimplePredicate field="Reseña" operator="equal" value="unico"/>
          <SimplePredicate field="Reseña" operator="equal" value="amable"/>
          <SimplePredicate field="Reseña" operator="equal" value="amabilidad"/>
          <SimplePredicate field="Reseña" operator="equal" value="emocionado"/>
          <SimplePredicate field="Reseña" operator="equal" value="emocionada"/>
          <SimplePredicate field="Reseña" operator="equal" value="emociona"/>
          <SimplePredicate field="Reseña" operator="equal" value="emocionante"/>
          <SimplePredicate field="Reseña" operator="equal" value="rico"/>
          <SimplePredicate field="Reseña" operator="equal" value="riquisimo"/>
          <SimplePredicate field="Reseña" operator="equal" value="delicioso"/>
          <SimplePredicate field="Reseña" operator="equal" value="sabroso"/>
          <SimplePredicate field="Reseña" operator="equal" value="gusto"/>
          <SimplePredicate field="Reseña" operator="equal" value="hace"/>
          <SimplePredicate field="Reseña" operator="equal" value="haces"/>
          <SimplePredicate field="Reseña" operator="equal" value="sentir"/>
          <SimplePredicate field="Reseña" operator="equal" value="hacen"/>
          <SimplePredicate field="Reseña" operator="equal" value="hice"/>
          <SimplePredicate field="Reseña" operator="equal" value="quieres"/>
          <SimplePredicate field="Reseña" operator="equal" value="agrado"/>
          <SimplePredicate field="Reseña" operator="equal" value="quiero"/>
          <SimplePredicate field="Reseña" operator="equal" value="orden"/>
          <SimplePredicate field="Reseña" operator="equal" value="ordenado"/>
          <SimplePredicate field="Reseña" operator="equal" value="sirve"/>
          <SimplePredicate field="Reseña" operator="equal" value="perdon"/>
          <SimplePredicate field="Reseña" operator="equal" value="sirven"/>
          <SimplePredicate field="Reseña" operator="equal" value="impresionado"/>
          <SimplePredicate field="Reseña" operator="equal" value="impresiona"/>
          <SimplePredicate field="Reseña" operator="equal" value="impresionada"/>
          <SimplePredicate field="Reseña" operator="equal" value="impresionante"/>
          <SimplePredicate field="Reseña" operator="equal" value="gracias"/>
          <SimplePredicate field="Reseña" operator="equal" value="libre"/>
          <SimplePredicate field="Reseña" operator="equal" value="hacer"/>
          <SimplePredicate field="Reseña" operator="equal" value="hare"/>
          <SimplePredicate field="Reseña" operator="equal" value="guau"/>
          <SimplePredicate field="Reseña" operator="equal" value="ansioso"/>
          <SimplePredicate field="Reseña" operator="equal" value="belleza"/>
          <SimplePredicate field="Reseña" operator="equal" value="bella"/>
          <SimplePredicate field="Reseña" operator="equal" value="bello"/>
          <SimplePredicate field="Reseña" operator="equal" value="bellisimo"/>
          <SimplePredicate field="Reseña" operator="equal" value="bellisima"/>
          <SimplePredicate field="Reseña" operator="equal" value="exito"/>
          <SimplePredicate field="Reseña" operator="equal" value="exitos"/>
          <SimplePredicate field="Reseña" operator="equal" value="exitoso"/>
          <SimplePredicate field="Reseña" operator="equal" value="exitosa"/>
          <SimplePredicate field="Reseña" operator="equal" value="grato"/>
          <SimplePredicate field="Reseña" operator="equal" value="grata"/>
          <SimplePredicate field="Reseña" operator="equal" value="gratitud"/>
          <SimplePredicate field="Reseña" operator="equal" value="victorioso"/>
          <SimplePredicate field="Reseña" operator="equal" value="victoriosa"/>
          <SimplePredicate field="Reseña" operator="equal" value="victoria"/>
          <SimplePredicate field="Reseña" operator="equal" value="gano"/>
          <SimplePredicate field="Reseña" operator="equal" value="gane"/>
          <SimplePredicate field="Reseña" operator="equal" value="ganaste"/>
          <SimplePredicate field="Reseña" operator="equal" value="ganamos"/>
          <SimplePredicate field="Reseña" operator="equal" value="respeto"/>
          <SimplePredicate field="Reseña" operator="equal" value="trabajo"/>
          <SimplePredicate field="Reseña" operator="equal" value="trabaje"/>
          <SimplePredicate field="Reseña" operator="equal" value="trabajamos"/>
          <SimplePredicate field="Reseña" operator="equal" value="trabajaste"/>
          <SimplePredicate field="Reseña" operator="equal" value="trabajas"/>
          <SimplePredicate field="Reseña" operator="equal" value="trabaja"/>
          <SimplePredicate field="Reseña" operator="equal" value="compasivo"/>
          <SimplePredicate field="Reseña" operator="equal" value="compasivos"/>
          <SimplePredicate field="Reseña" operator="equal" value="compasiva"/>
          <SimplePredicate field="Reseña" operator="equal" value="compasivas"/>
          <SimplePredicate field="Reseña" operator="equal" value="piadoso"/>
          <SimplePredicate field="Reseña" operator="equal" value="piadosos"/>
          <SimplePredicate field="Reseña" operator="equal" value="piadosa"/>
          <SimplePredicate field="Reseña" operator="equal" value="piadosas"/>
          <SimplePredicate field="Reseña" operator="equal" value="apasionado"/>
          <SimplePredicate field="Reseña" operator="equal" value="apasionados"/>
          <SimplePredicate field="Reseña" operator="equal" value="apasionada"/>
          <SimplePredicate field="Reseña" operator="equal" value="apasionadas"/>
          <SimplePredicate field="Reseña" operator="equal" value="apasiona"/>
          <SimplePredicate field="Reseña" operator="equal" value="comprensivo"/>
          <SimplePredicate field="Reseña" operator="equal" value="comprensivos"/>
          <SimplePredicate field="Reseña" operator="equal" value="comprensiva"/>
          <SimplePredicate field="Reseña" operator="equal" value="comprensivas"/>
          <SimplePredicate field="Reseña" operator="equal" value="comprensible"/>
          <SimplePredicate field="Reseña" operator="equal" value="comprende"/>
          <SimplePredicate field="Reseña" operator="equal" value="comprendes"/>
          <SimplePredicate field="Reseña" operator="equal" value="comprendio"/>
          <SimplePredicate field="Reseña" operator="equal" value="comprendido"/>
          <SimplePredicate field="Reseña" operator="equal" value="compete"/>
          <SimplePredicate field="Reseña" operator="equal" value="metas"/>
          <SimplePredicate field="Reseña" operator="equal" value="tiñe"/>
          <SimplePredicate field="Reseña" operator="equal" value="pinta"/>
          <SimplePredicate field="Reseña" operator="equal" value="pinto"/>
          <SimplePredicate field="Reseña" operator="equal" value="altamente"/>
          <SimplePredicate field="Reseña" operator="equal" value="maravilloso"/>
          <SimplePredicate field="Reseña" operator="equal" value="funciona"/>
          <SimplePredicate field="Reseña" operator="equal" value="vale"/>
          <SimplePredicate field="Reseña" operator="equal" value="precio"/>
          <SimplePredicate field="Reseña" operator="equal" value="rapido"/>
          <SimplePredicate field="Reseña" operator="equal" value="seguro"/>
          <SimplePredicate field="Reseña" operator="equal" value="confiable"/>
          <SimplePredicate field="Reseña" operator="equal" value="diseñado"/>
          <SimplePredicate field="Reseña" operator="equal" value="perfectamente"/>
          <SimplePredicate field="Reseña" operator="equal" value="cubre"/>
          <SimplePredicate field="Reseña" operator="equal" value="expectativas"/>
          <SimplePredicate field="Reseña" operator="equal" value="expectativa"/>
          <SimplePredicate field="Reseña" operator="equal" value="resistencia"/>
          <SimplePredicate field="Reseña" operator="equal" value="comoda"/>
          <SimplePredicate field="Reseña" operator="equal" value="hermosa"/>
          <SimplePredicate field="Reseña" operator="equal" value="hermoso"/>
          <SimplePredicate field="Reseña" operator="equal" value="hermosas"/>
          <SimplePredicate field="Reseña" operator="equal" value="hermosos"/>
          <SimplePredicate field="Reseña" operator="equal" value="esperado"/>
          <SimplePredicate field="Reseña" operator="equal" value="usaria"/>
          <SimplePredicate field="Reseña" operator="equal" value="geniales"/>
          <SimplePredicate field="Reseña" operator="equal" value="conveniente"/>
          <SimplePredicate field="Reseña" operator="equal" value="buenazo"/>
          <SimplePredicate field="Reseña" operator="equal" value="eficaz"/>
          <SimplePredicate field="Reseña" operator="equal" value="practico"/>
          <SimplePredicate field="Reseña" operator="equal" value="practicidad"/>
          <SimplePredicate field="Reseña" operator="equal" value="usar"/>
          <SimplePredicate field="Reseña" operator="equal" value="ieal"/>
          <SimplePredicate field="Reseña" operator="equal" value="enorme"/>
          <SimplePredicate field="Reseña" operator="equal" value="acabado"/>
          <SimplePredicate field="Reseña" operator="equal" value="estilo"/>
          <SimplePredicate field="Reseña" operator="equal" value="estiloso"/>
          <SimplePredicate field="Reseña" operator="equal" value="suave"/>
          <SimplePredicate field="Reseña" operator="equal" value="suaves"/>
          <SimplePredicate field="Reseña" operator="equal" value="duradero"/>
          <SimplePredicate field="Reseña" operator="equal" value="amigable"/>
          <SimplePredicate field="Reseña" operator="equal" value="gran"/>
          <SimplePredicate field="Reseña" operator="equal" value="compra"/>
          <SimplePredicate field="Reseña" operator="equal" value="potente"/>
          <SimplePredicate field="Reseña" operator="equal" value="excelente"/>
          <SimplePredicate field="Reseña" operator="equal" value="rinde"/>
          <SimplePredicate field="Reseña" operator="equal" value="compacto"/>
          <SimplePredicate field="Reseña" operator="equal" value="innovador"/>
          <SimplePredicate field="Reseña" operator="equal" value="inversion"/>
          <SimplePredicate field="Reseña" operator="equal" value="recomendado"/>
          <SimplePredicate field="Reseña" operator="equal" value="valor"/>
          <SimplePredicate field="Reseña" operator="equal" value="construido"/>
          <SimplePredicate field="Reseña" operator="equal" value="ligero"/>
          <SimplePredicate field="Reseña" operator="equal" value="fuerte"/>
          <SimplePredicate field="Reseña" operator="equal" value="sencillo"/>
          <SimplePredicate field="Reseña" operator="equal" value="sencilla"/>
          <SimplePredicate field="Reseña" operator="equal" value="ideal"/>
          <SimplePredicate field="Reseña" operator="equal" value="llevar"/>
          <SimplePredicate field="Reseña" operator="equal" value="claras"/>
          <SimplePredicate field="Reseña" operator="equal" value="clara"/>
          <SimplePredicate field="Reseña" operator="equal" value="firme"/>
          <SimplePredicate field="Reseña" operator="equal" value="segura"/>
          <SimplePredicate field="Reseña" operator="equal" value="precision"/>
          <SimplePredicate field="Reseña" operator="equal" value="necesito"/>
          <SimplePredicate field="Reseña" operator="equal" value="elocuente"/>
          <SimplePredicate field="Reseña" operator="equal" value="calido"/>
          <SimplePredicate field="Reseña" operator="equal" value="fructuoso"/>
          <SimplePredicate field="Reseña" operator="equal" value="receptivo"/>
          <SimplePredicate field="Reseña" operator="equal" value="decidido"/>
          <SimplePredicate field="Reseña" operator="equal" value="energico"/>
          <SimplePredicate field="Reseña" operator="equal" value="actualizado"/>
          <SimplePredicate field="Reseña" operator="equal" value="facilitador"/>
          <SimplePredicate field="Reseña" operator="equal" value="vigoroso"/>
          <SimplePredicate field="Reseña" operator="equal" value="devoto"/>
          <SimplePredicate field="Reseña" operator="equal" value="colaborador"/>
          <SimplePredicate field="Reseña" operator="equal" value="placentero"/>
          <SimplePredicate field="Reseña" operator="equal" value="honesto"/>
          <SimplePredicate field="Reseña" operator="equal" value="fructifero"/>
          <SimplePredicate field="Reseña" operator="equal" value="memorable"/>
          <SimplePredicate field="Reseña" operator="equal" value="creativo"/>
          <SimplePredicate field="Reseña" operator="equal" value="esplendido"/>
          <SimplePredicate field="Reseña" operator="equal" value="armonioso"/>
          <SimplePredicate field="Reseña" operator="equal" value="fiel"/>
          <SimplePredicate field="Reseña" operator="equal" value="genuino"/>
          <SimplePredicate field="Reseña" operator="equal" value="alcanzable"/>
          <SimplePredicate field="Reseña" operator="equal" value="dispuesto"/>
          <SimplePredicate field="Reseña" operator="equal" value="efectivo"/>
          <SimplePredicate field="Reseña" operator="equal" value="grandioso"/>
          <SimplePredicate field="Reseña" operator="equal" value="brillante"/>
          <SimplePredicate field="Reseña" operator="equal" value="atrayente"/>
          <SimplePredicate field="Reseña" operator="equal" value="adecuado"/>
          <SimplePredicate field="Reseña" operator="equal" value="iluminado"/>
          <SimplePredicate field="Reseña" operator="equal" value="carinoso"/>
          <SimplePredicate field="Reseña" operator="equal" value="amistoso"/>
          <SimplePredicate field="Reseña" operator="equal" value="beneficioso"/>
          <SimplePredicate field="Reseña" operator="equal" value="puntual"/>
          <SimplePredicate field="Reseña" operator="equal" value="sincero"/>
          <SimplePredicate field="Reseña" operator="equal" value="balanceado"/>
          <SimplePredicate field="Reseña" operator="equal" value="renovador"/>
          <SimplePredicate field="Reseña" operator="equal" value="inspirador"/>
          <SimplePredicate field="Reseña" operator="equal" value="inocente"/>
          <SimplePredicate field="Reseña" operator="equal" value="emprendedor"/>
          <SimplePredicate field="Reseña" operator="equal" value="tolerante"/>
          <SimplePredicate field="Reseña" operator="equal" value="delicado"/>
          <SimplePredicate field="Reseña" operator="equal" value="talentoso"/>
          <SimplePredicate field="Reseña" operator="equal" value="compasion"/>
          <SimplePredicate field="Reseña" operator="equal" value="asertivo"/>
          <SimplePredicate field="Reseña" operator="equal" value="flexible"/>
          <SimplePredicate field="Reseña" operator="equal" value="accesible"/>
          <SimplePredicate field="Reseña" operator="equal" value="fluido"/>
          <SimplePredicate field="Reseña" operator="equal" value="concentrado"/>
          <SimplePredicate field="Reseña" operator="equal" value="optimista"/>
          <SimplePredicate field="Reseña" operator="equal" value="gratificante"/>
